digraph Tree {
node [shape=box, style="filled, rounded", color="black", fontname="helvetica"] ;
edge [fontname="helvetica"] ;
0 [label=<RM &le; 6.797<br/>squared_error = 75.341<br/>samples = 323<br/>value = 22.023>, fillcolor="#f8deca"] ;
1 [label=<LSTAT &le; 14.915<br/>squared_error = 33.162<br/>samples = 270<br/>value = 19.372>, fillcolor="#fae6d8"] ;
0 -> 1 [labeldistance=2.5, labelangle=45, headlabel="True"] ;
2 [label=<DIS &le; 1.227<br/>squared_error = 21.692<br/>samples = 161<br/>value = 22.447>, fillcolor="#f8dcc8"] ;
1 -> 2 ;
3 [label=<squared_error = 0.0<br/>samples = 2<br/>value = 50.0>, fillcolor="#e58139"] ;
2 -> 3 ;
4 [label=<squared_error = 12.296<br/>samples = 159<br/>value = 22.1>, fillcolor="#f8ddca"] ;
2 -> 4 ;
5 [label=<CRIM &le; 5.769<br/>squared_error = 15.522<br/>samples = 109<br/>value = 14.831>, fillcolor="#fdf5f0"] ;
1 -> 5 ;
6 [label=<squared_error = 9.346<br/>samples = 62<br/>value = 17.055>, fillcolor="#fbeee4"] ;
5 -> 6 ;
7 [label=<squared_error = 8.542<br/>samples = 47<br/>value = 11.898>, fillcolor="#ffffff"] ;
5 -> 7 ;
8 [label=<RM &le; 7.454<br/>squared_error = 72.073<br/>samples = 53<br/>value = 35.526>, fillcolor="#efb184"] ;
0 -> 8 [labeldistance=2.5, labelangle=-45, headlabel="False"] ;
9 [label=<NOX &le; 0.659<br/>squared_error = 32.69<br/>samples = 37<br/>value = 31.278>, fillcolor="#f2bf9a"] ;
8 -> 9 ;
10 [label=<squared_error = 21.073<br/>samples = 35<br/>value = 32.129>, fillcolor="#f1bc96"] ;
9 -> 10 ;
11 [label=<squared_error = 1.96<br/>samples = 2<br/>value = 16.4>, fillcolor="#fcf0e8"] ;
9 -> 11 ;
12 [label=<PTRATIO &le; 16.15<br/>squared_error = 24.912<br/>samples = 16<br/>value = 45.35>, fillcolor="#e89051"] ;
8 -> 12 ;
13 [label=<squared_error = 6.702<br/>samples = 10<br/>value = 48.22>, fillcolor="#e68742"] ;
12 -> 13 ;
14 [label=<squared_error = 18.656<br/>samples = 6<br/>value = 40.567>, fillcolor="#eba06a"] ;
12 -> 14 ;
}